{ 
   "joints": [ "knee" ],
   "muscles": [ "rectus_femoris", "bisceps_femoris", "semitendinoso", "vastus_medialis", "vastus_laterais" ],
   "input_weights": [ 
      [  1.63989,  -2.46471,  -2.46764,  1.00975,  3.87594,  -3.10953,  -6.1818,  -1.05853,  -0.684868 ],   
      [  0.806546,  1.17762,  0.95155,  -1.68301,  -2.75615,  0.464129,  9.29337,  -0.589334,  9.91375 ],   
      [  -11.099,  -0.853262,  -0.738789,  -2.63741,  1.18936,  -2.72426,  0.425432,  0.655315,  1.61657 ],   
      [  3.71543,  1.11876,  2.73144,  -6.71196,  -10.5639,  0.0232753,  -4.76233,  -0.19131,  0.114939 ],   
      [  0.173147,  1.58687,  0.912097,  -4.28552,  -3.16169,  0.614449,  0.296515,  -2.89246,  1.47153 ],   
      [  -1.4257,  0.559693,  1.20464,  1.99563,  -1.93893,  1.965,  -0.80986,  -2.779,  1.30451 ],   
      [  -0.491022,  -0.0257854,  0.629628,  0.664874,  0.030407,  -0.780605,  -1.36964,  -1.5074,  1.84369 ],   
      [  0.372157,  1.90506,  -0.31446,  -0.442352,  0.479158,  0.548507,  -1.47448,  -0.649907,  2.05896 ],   
      [  3.17514,  3.53443,  1.29605,  1.38804,  2.51442,  1.27223,  -1.8734,  -0.109687,  2.54367 ],   
      [  1.23125,  2.81003,  1.21031,  -0.198069,  0.409981,  2.84809,  4.44619,  0.749404,  3.45724 ],   
    ],   
   "output_weights": [ 
      [  -3.26677,  -3.60544,  -5.12096,  4.9933,  1.85724,  2.16969,  -0.108037,  -0.0131251,  0.964085,  2.53953,  0.576456 ],   
      [  1.48704,  2.02742,  -0.0794321,  -2.26334,  0.772362,  0.0877828,  -0.341675,  -0.861787,  -0.637186,  0.818608,  1.15415 ],   
    ],   
   "outputs_max": [  23.5864,  7.18471 ],   
   "outputs_min": [  -11.901,  -2.0309 ],   
   "inputs_max": [  0.214738,  0.085153,  0.107822,  0.0821434,  0.0623191,  0.0964876,  -2.67653,  1.00189 ],   
   "inputs_min": [  0,  0,  0,  0,  0,  0,  -92.1364,  -1.01103 ],   
 }   
