{ 
   "joints": ["knee"], 
   "muscles": ["rectus_femoris" , "vastus_medialis", "vastus_laterais", "bisceps_femoris", "semitendinoso", "vastus_intermedius" ], 
   "input_weights": [ 
          [-3.40055, 0.122473, -0.668956, -3.84734, 14.489, -0.696119, -2.02491, -1.23251, 0.943102], 
          [0.95416, -1.38908, 0.546928, -1.90536, 0.0114009, -0.15057, -0.727393, -0.691408, 2.83407], 
          [-1.19745, -0.9087, 1.03206, 1.25544, 1.70282, 1.27096, -0.429003, -1.62977, 1.96193], 
          [-0.740828, -0.582776, 0.157709, 1.69682, -3.44688, 0.196228, -3.46948, -1.89786, 1.76921], 
          [-3.3223, -0.754082, -8.97166, -5.98974, 0.297752, -0.967223, 2.08643, 0.432566, 2.22981], 
          [-0.609712, -0.224438, -1.64992, -0.365145, -1.12596, -0.812082, -1.20405, 0.167491, 2.72592], 
          [0.928012, 0.520485, -23.9236, 0.829476, 2.52267, 0.0633711, 1.58878, 0.551148, 2.60936], 
          [-2.84014, 0.14354, 5.70679, -5.41567, 2.99764, 0.402418, -2.6825, -1.70718, 0.363563], 
          [0.374649, -1.15251, 0.977561, 1.1317, -3.07442, -1.55253, 14.0457, 1.61755, 14.2495], 
          [1.95322, -0.374584, -3.98377, -4.09733, 0.338302, -0.0123349, 4.82725, -7.46921, 4.26413] 
     ] 
   "output_weights": [ 
          [-3.51642, -0.752659, -0.341608, 1.52858, -1.89388, -0.823585, -7.68621, -2.04945, -2.93276, 2.6771, -2.00284], 
          [0.503743, 0.334324, -2.03556, -0.497081, 2.10975, -0.31519, -1.0622, 0.513162, 3.43718, 3.24361, 1.44328] 
     ] 
   "output_max": [27.9859, 5.82459 ] 
   "output_min": [-18.9212, -1.71292 ] 
   "input_max": [0.08621, 2.91294,0.157346, 0.0528114, 0.116235, 1.46303, -1.62341, 1.55663 ] 
   "input_max": [0, 0, 0, 0, 0, 0, -97.5514, -0.794838 ] 
} 
